{
  "target_g": 8.87,
  "gravities": [
    1,
    2,
    3,
    4,
    5,
    6,
    7,
    8,
    9,
    10
  ],
  "lip_mode": "from_file",
  "correct_g": null,
  "wrong_g": null,
  "N0": 1024,
  "em_iters": 100,
  "em_m_steps": 100,
  "em_iter0_m_steps": 100,
  "em_beta_scale": -1.0,
  "em_d_eff": 811030,
  "em_nu": 0.1,
  "em_lr": 1e-05,
  "em_lr_schedule": "constant",
  "pi": [
    0.00656189949620859,
    0.0077411002813666824,
    0.006968041284721234,
    0.0066491569898949904,
    0.007358654990862681,
    0.007400800202564016,
    0.007157803000130725,
    0.0067366538046933246,
    0.20031828152947184,
    0.006702611211492569
  ],
  "final_weights": [
    3.440183698145375e-230,
    4.350971994878199e-248,
    2.1261645867889035e-189,
    5.344930625437199e-206,
    0.0,
    5.766659091476208e-118,
    3.839836470920035e-134,
    5.994359386600305e-43,
    0.9998988421211079,
    1.2537447402963068e-66
  ],
  "final_argmax": 8,
  "final_argmax_g": 9,
  "best_test_nll": -65.7510453125,
  "final_test_nll": -65.7510453125,
  "test_nll_trajectory": [
    -49.33372734375,
    -60.9771921875,
    -62.421921875,
    -63.1378296875,
    -63.4092703125,
    -63.75339375,
    -64.05630625,
    -64.29647890625,
    -64.46970625,
    -64.7885671875,
    -64.958115625,
    -65.1193234375,
    -65.19895234375,
    -65.3452859375,
    -65.46011875,
    -65.5931421875,
    -65.7510453125
  ],
  "em_seconds": 72.25606060028076
}