{
  "target_g": 8.87,
  "gravities": [
    1,
    2,
    3,
    4,
    5,
    6,
    7,
    8,
    9,
    10
  ],
  "lip_mode": "from_file",
  "correct_g": null,
  "wrong_g": null,
  "N0": 128,
  "em_iters": 100,
  "em_m_steps": 100,
  "em_iter0_m_steps": 100,
  "em_beta_scale": -1.0,
  "em_d_eff": 811030,
  "em_nu": 0.1,
  "em_lr": 1e-05,
  "em_lr_schedule": "constant",
  "pi": [
    0.005550043402606613,
    0.005455312252525701,
    0.006539559283137454,
    0.0072187196005792,
    0.009658470973212685,
    0.012354279197197787,
    0.021415036738836567,
    0.010666630221920388,
    0.021140720570978815,
    0.011993629463090705
  ],
  "final_weights": [
    0.0,
    0.0,
    9e-323,
    0.0,
    2.906445089584222e-277,
    3.991934755678654e-121,
    0.9952002286057153,
    3.2551698257347295e-101,
    6.854156787563224e-294,
    0.0
  ],
  "final_argmax": 6,
  "final_argmax_g": 7,
  "best_test_nll": -40.04366171875,
  "final_test_nll": -22.40100234375,
  "test_nll_trajectory": [
    -7.47105283203125,
    -21.83723359375,
    -25.3320546875,
    -33.0288953125,
    -33.817287890625,
    -34.909388671875,
    -35.851068359375,
    -35.57899921875,
    -35.799104296875,
    -36.05878984375,
    -37.1166421875,
    -39.1780484375,
    -39.04191640625,
    -40.039596875,
    -40.04366171875,
    -38.2262015625,
    -36.061667578125,
    -36.968912890625,
    -36.213609765625,
    -34.8683015625,
    -34.8763765625,
    -33.207896875,
    -33.9374921875,
    -33.39136796875,
    -34.61846484375,
    -33.22504765625,
    -32.83918984375,
    -32.31219453125,
    -31.100983984375,
    -30.60304296875,
    -30.0018078125,
    -28.7762546875,
    -28.913696875,
    -28.81702734375,
    -26.6438609375,
    -27.04741484375,
    -27.22071875,
    -26.486023046875,
    -26.649202734375,
    -25.000843359375,
    -24.80970234375,
    -24.61574453125,
    -25.2206546875,
    -23.48521875,
    -24.870548046875,
    -24.53765234375,
    -23.385171875,
    -23.86562578125,
    -22.59967890625,
    -22.8678859375,
    -21.92765,
    -23.2203703125,
    -23.689462890625,
    -23.298444921875,
    -22.00003359375,
    -22.40100234375
  ],
  "em_seconds": 219.08699703216553
}