{
  "target_g": 8.87,
  "gravities": [
    1,
    2,
    3,
    4,
    5,
    6,
    7,
    8,
    9,
    10
  ],
  "lip_mode": "from_file",
  "correct_g": null,
  "wrong_g": null,
  "N0": 2048,
  "em_iters": 100,
  "em_m_steps": 100,
  "em_iter0_m_steps": 100,
  "em_beta_scale": -1.0,
  "em_d_eff": 811030,
  "em_nu": 0.1,
  "em_lr": 1e-05,
  "em_lr_schedule": "constant",
  "pi": [
    0.005550043402606613,
    0.005455312252525701,
    0.006539559283137454,
    0.0072187196005792,
    0.009658470973212685,
    0.012354279197197787,
    0.021415036738836567,
    0.010666630221920388,
    0.021140720570978815,
    0.011993629463090705
  ],
  "final_weights": [
    3.2819791698797817e-278,
    2.8763811518064233e-297,
    1.6131196995881564e-224,
    2.4844978428261937e-240,
    0.0,
    7.196044619937112e-156,
    6.121684128248871e-155,
    1.0144047517832389e-44,
    0.9999815434571319,
    6.570615782090006e-64
  ],
  "final_argmax": 8,
  "final_argmax_g": 9,
  "best_test_nll": -66.71481171875,
  "final_test_nll": -66.71481171875,
  "test_nll_trajectory": [
    -61.74517109375,
    -64.7812703125,
    -65.412953125,
    -65.72942109375,
    -65.8775328125,
    -65.933396875,
    -65.9453625,
    -66.03025,
    -66.09628515625,
    -66.1371265625,
    -66.20740703125,
    -66.30555859375,
    -66.36958359375,
    -66.425746875,
    -66.4826859375,
    -66.59455625,
    -66.66673515625,
    -66.71481171875
  ],
  "em_seconds": 72.93345522880554
}