{
  "target_g": 8.87,
  "gravities": [
    1,
    2,
    3,
    4,
    5,
    6,
    7,
    8,
    9,
    10
  ],
  "lip_mode": "uniform",
  "correct_g": null,
  "wrong_g": null,
  "N0": 512,
  "em_iters": 100,
  "em_m_steps": 100,
  "em_iter0_m_steps": 100,
  "em_beta_scale": -1.0,
  "em_d_eff": 811030,
  "em_nu": 0.1,
  "em_lr": 1e-05,
  "em_lr_schedule": "constant",
  "pi": [
    0.01,
    0.01,
    0.01,
    0.01,
    0.01,
    0.01,
    0.01,
    0.01,
    0.01,
    0.01
  ],
  "final_weights": [
    0.0,
    0.0,
    1.4219628015932055e-286,
    0.0,
    0.0,
    2.0370394818916403e-205,
    6.4276212715145774e-192,
    4.2905243733163295e-55,
    0.9972496672165518,
    5.0759278428938865e-77
  ],
  "final_argmax": 8,
  "final_argmax_g": 9,
  "best_test_nll": -65.9139546875,
  "final_test_nll": -65.9139546875,
  "test_nll_trajectory": [
    -53.77009921875,
    -57.77848203125,
    -59.145746875,
    -59.7997125,
    -60.28349765625,
    -60.73326171875,
    -60.9256375,
    -61.2723640625,
    -61.5078515625,
    -61.8524875,
    -62.172615625,
    -62.6506984375,
    -63.0691921875,
    -63.3380765625,
    -63.7906015625,
    -64.0024390625,
    -64.236784375,
    -64.26367890625,
    -64.36221953125,
    -64.447465625,
    -64.57663984375,
    -64.72499921875,
    -64.80932265625,
    -64.8540921875,
    -64.8636875,
    -64.8766109375,
    -64.975525,
    -65.0758265625,
    -65.1584390625,
    -65.1912609375,
    -65.242915625,
    -65.410153125,
    -65.4508078125,
    -65.41926953125,
    -65.5710984375,
    -65.5655984375,
    -65.678678125,
    -65.7252265625,
    -65.6822515625,
    -65.855390625,
    -65.9139546875
  ],
  "em_seconds": 164.3584623336792
}