{
  "target_g": 8.87,
  "gravities": [
    1,
    2,
    3,
    4,
    5,
    6,
    7,
    8,
    9,
    10
  ],
  "lip_mode": "from_file",
  "correct_g": null,
  "wrong_g": null,
  "N0": 4096,
  "em_iters": 100,
  "em_m_steps": 100,
  "em_iter0_m_steps": 100,
  "em_beta_scale": -1.0,
  "em_d_eff": 811030,
  "em_nu": 0.1,
  "em_lr": 1e-05,
  "em_lr_schedule": "constant",
  "pi": [
    0.00656189949620859,
    0.0077411002813666824,
    0.006968041284721234,
    0.0066491569898949904,
    0.007358654990862681,
    0.007400800202564016,
    0.007157803000130725,
    0.0067366538046933246,
    0.20031828152947184,
    0.006702611211492569
  ],
  "final_weights": [
    2.3522828127507136e-221,
    1.421719612538494e-259,
    9.909053702892006e-192,
    2.0733066193282967e-198,
    0.0,
    4.0515529698201334e-138,
    3.216798381176861e-149,
    3.520813207945186e-52,
    0.9999994123172732,
    3.2467780611534972e-74
  ],
  "final_argmax": 8,
  "final_argmax_g": 9,
  "best_test_nll": -66.5989203125,
  "final_test_nll": -66.5989203125,
  "test_nll_trajectory": [
    -62.554990625,
    -64.7237375,
    -65.064840625,
    -65.2613453125,
    -65.4810453125,
    -65.66420390625,
    -65.8554875,
    -66.063446875,
    -66.256765625,
    -66.3681796875,
    -66.5426203125,
    -66.5989203125
  ],
  "em_seconds": 50.96098613739014
}