{
  "target_g": 8.87,
  "gravities": [
    1,
    2,
    3,
    4,
    5,
    6,
    7,
    8,
    9,
    10
  ],
  "lip_mode": "from_file",
  "correct_g": null,
  "wrong_g": null,
  "N0": 128,
  "em_iters": 100,
  "em_m_steps": 100,
  "em_iter0_m_steps": 100,
  "em_beta_scale": -1.0,
  "em_d_eff": 811030,
  "em_nu": 0.1,
  "em_lr": 1e-05,
  "em_lr_schedule": "constant",
  "pi": [
    0.00656189949620859,
    0.0077411002813666824,
    0.006968041284721234,
    0.0066491569898949904,
    0.007358654990862681,
    0.007400800202564016,
    0.007157803000130725,
    0.0067366538046933246,
    0.20031828152947184,
    0.006702611211492569
  ],
  "final_weights": [
    0.0,
    1.9588998640177396e-300,
    3.780411188875209e-238,
    1.0879036850249899e-278,
    0.0,
    3.411638279758598e-145,
    4.758885187120391e-141,
    5.480329005244568e-43,
    0.9876070319273229,
    1.1415259096872497e-53
  ],
  "final_argmax": 8,
  "final_argmax_g": 9,
  "best_test_nll": -62.2657484375,
  "final_test_nll": -62.2657484375,
  "test_nll_trajectory": [
    13.597553515625,
    -2.6587953369140624,
    -17.21328515625,
    -27.977215234375,
    -34.61891796875,
    -39.43155546875,
    -42.363028125,
    -45.55983984375,
    -48.0536125,
    -48.92063203125,
    -50.3927328125,
    -51.16183359375,
    -52.0973609375,
    -52.7010328125,
    -53.64968828125,
    -54.34994375,
    -55.229715625,
    -55.86905078125,
    -56.6912328125,
    -57.23303671875,
    -57.63018359375,
    -58.211753125,
    -58.70245546875,
    -59.2148703125,
    -59.3538046875,
    -59.6319171875,
    -59.7003421875,
    -60.0193828125,
    -60.404721875,
    -60.4913375,
    -60.71554375,
    -60.91402890625,
    -60.8697921875,
    -61.232875,
    -61.08820546875,
    -61.4132171875,
    -61.4023796875,
    -61.78291328125,
    -61.91758515625,
    -62.0638765625,
    -62.103296875,
    -62.2657484375
  ],
  "em_seconds": 169.27561450004578
}