{
  "target_g": 8.87,
  "gravities": [
    1,
    2,
    3,
    4,
    5,
    6,
    7,
    8,
    9,
    10
  ],
  "lip_mode": "from_file",
  "correct_g": null,
  "wrong_g": null,
  "N0": 256,
  "em_iters": 100,
  "em_m_steps": 100,
  "em_iter0_m_steps": 100,
  "em_beta_scale": -1.0,
  "em_d_eff": 811030,
  "em_nu": 0.1,
  "em_lr": 1e-05,
  "em_lr_schedule": "constant",
  "pi": [
    0.00656189949620859,
    0.0077411002813666824,
    0.006968041284721234,
    0.0066491569898949904,
    0.007358654990862681,
    0.007400800202564016,
    0.007157803000130725,
    0.0067366538046933246,
    0.20031828152947184,
    0.006702611211492569
  ],
  "final_weights": [
    2.076198954327903e-291,
    1.0886961537301071e-279,
    2.6005900834717603e-219,
    6.04205710860077e-250,
    0.0,
    2.4851919960354633e-137,
    3.077409535879356e-139,
    3.068356772180299e-42,
    0.9972169793838991,
    1.369114171603593e-59
  ],
  "final_argmax": 8,
  "final_argmax_g": 9,
  "best_test_nll": -64.136603125,
  "final_test_nll": -64.136603125,
  "test_nll_trajectory": [
    -6.29824072265625,
    -33.0704234375,
    -44.67210234375,
    -50.1568109375,
    -54.44030703125,
    -56.8981109375,
    -58.04525,
    -58.851925,
    -59.5692078125,
    -59.75002109375,
    -60.23717734375,
    -60.5055671875,
    -60.90797109375,
    -61.1634140625,
    -61.3719578125,
    -61.7575296875,
    -62.0300125,
    -61.974515625,
    -62.3426140625,
    -62.383596875,
    -62.44870625,
    -62.9337015625,
    -62.92241875,
    -63.0996875,
    -63.36090234375,
    -63.414775,
    -63.49067578125,
    -63.81626484375,
    -63.9582890625,
    -64.136603125
  ],
  "em_seconds": 122.92985510826111
}