{
  "target_g": 8.87,
  "gravities": [
    1,
    2,
    3,
    4,
    5,
    6,
    7,
    8,
    9,
    10
  ],
  "lip_mode": "from_file",
  "correct_g": null,
  "wrong_g": null,
  "N0": 2048,
  "em_iters": 100,
  "em_m_steps": 100,
  "em_iter0_m_steps": 100,
  "em_beta_scale": -1.0,
  "em_d_eff": 811030,
  "em_nu": 0.1,
  "em_lr": 1e-05,
  "em_lr_schedule": "constant",
  "pi": [
    0.00656189949620859,
    0.0077411002813666824,
    0.006968041284721234,
    0.0066491569898949904,
    0.007358654990862681,
    0.007400800202564016,
    0.007157803000130725,
    0.0067366538046933246,
    0.20031828152947184,
    0.006702611211492569
  ],
  "final_weights": [
    1.7486030978257062e-227,
    2.208156200084625e-251,
    1.3597486102342715e-189,
    2.292481873445641e-199,
    0.0,
    2.728201417886302e-127,
    1.6641918978992987e-139,
    1.3296320224176295e-45,
    0.9999903122776295,
    5.795862449682719e-69
  ],
  "final_argmax": 8,
  "final_argmax_g": 9,
  "best_test_nll": -66.203059375,
  "final_test_nll": -66.203059375,
  "test_nll_trajectory": [
    -59.25021875,
    -63.326165625,
    -64.00045,
    -64.391240625,
    -64.61071875,
    -64.82136875,
    -64.9614921875,
    -65.2448234375,
    -65.47458515625,
    -65.6125125,
    -65.7814015625,
    -65.92426328125,
    -66.08257890625,
    -66.203059375
  ],
  "em_seconds": 61.608213663101196
}