{
  "target_g": 8.87,
  "gravities": [
    1,
    2,
    3,
    4,
    5,
    6,
    7,
    8,
    9,
    10
  ],
  "lip_mode": "from_file",
  "correct_g": null,
  "wrong_g": null,
  "N0": 256,
  "em_iters": 100,
  "em_m_steps": 100,
  "em_iter0_m_steps": 100,
  "em_beta_scale": -1.0,
  "em_d_eff": 811030,
  "em_nu": 0.1,
  "em_lr": 1e-05,
  "em_lr_schedule": "constant",
  "pi": [
    0.005550043402606613,
    0.005455312252525701,
    0.006539559283137454,
    0.0072187196005792,
    0.009658470973212685,
    0.012354279197197787,
    0.021415036738836567,
    0.010666630221920388,
    0.021140720570978815,
    0.011993629463090705
  ],
  "final_weights": [
    8.050883032324585e-277,
    1.588066910080774e-236,
    7.709772555274507e-173,
    5.440975536210136e-258,
    1.647886709140054e-172,
    7.745835654823872e-90,
    0.998492870920043,
    9.042373895758025e-79,
    5.06934838997944e-185,
    2.9218409576904293e-214
  ],
  "final_argmax": 6,
  "final_argmax_g": 7,
  "best_test_nll": -57.88294296875,
  "final_test_nll": -43.50857734375,
  "test_nll_trajectory": [
    -33.18711484375,
    -49.1130390625,
    -52.27108203125,
    -55.0087640625,
    -56.18639453125,
    -56.7197234375,
    -57.32665859375,
    -57.671146875,
    -57.88294296875,
    -57.225803125,
    -56.2699125,
    -54.45783515625,
    -53.194940625,
    -52.9492109375,
    -52.0916203125,
    -51.19616875,
    -50.946003125,
    -50.048121875,
    -49.84427734375,
    -48.9412109375,
    -48.781940625,
    -47.363925,
    -47.202340625,
    -47.34120859375,
    -46.10301484375,
    -45.8946640625,
    -45.0616828125,
    -45.193475,
    -43.980996875,
    -43.50857734375
  ],
  "em_seconds": 123.7043514251709
}