{
  "target_g": 8.87,
  "gravities": [
    1,
    2,
    3,
    4,
    5,
    6,
    7,
    8,
    9,
    10
  ],
  "lip_mode": "from_file",
  "correct_g": null,
  "wrong_g": null,
  "N0": 512,
  "em_iters": 100,
  "em_m_steps": 100,
  "em_iter0_m_steps": 100,
  "em_beta_scale": -1.0,
  "em_d_eff": 811030,
  "em_nu": 0.1,
  "em_lr": 1e-05,
  "em_lr_schedule": "constant",
  "pi": [
    0.00656189949620859,
    0.0077411002813666824,
    0.006968041284721234,
    0.0066491569898949904,
    0.007358654990862681,
    0.007400800202564016,
    0.007157803000130725,
    0.0067366538046933246,
    0.20031828152947184,
    0.006702611211492569
  ],
  "final_weights": [
    1.603709480953157e-239,
    1.1945206685866817e-243,
    7.418025745138524e-187,
    1.9336689137717983e-204,
    0.0,
    5.398286483900881e-119,
    6.8878594607627894e-127,
    4.656172775408618e-40,
    0.9992110134414461,
    9.969817774048464e-60
  ],
  "final_argmax": 8,
  "final_argmax_g": 9,
  "best_test_nll": -64.81980390625,
  "final_test_nll": -64.81980390625,
  "test_nll_trajectory": [
    -33.26033515625,
    -53.78252578125,
    -57.8092859375,
    -59.3541703125,
    -60.430621875,
    -61.010096875,
    -61.6342953125,
    -62.280659375,
    -62.4477640625,
    -62.751384375,
    -62.9458703125,
    -63.281253125,
    -63.6119171875,
    -63.6778078125,
    -64.058528125,
    -64.1016015625,
    -64.3808703125,
    -64.3805625,
    -64.5616109375,
    -64.6706375,
    -64.81980390625
  ],
  "em_seconds": 85.38533306121826
}