{
  "target_g": 8.87,
  "gravities": [
    1,
    2,
    3,
    4,
    5,
    6,
    7,
    8,
    9,
    10
  ],
  "lip_mode": "from_file",
  "correct_g": null,
  "wrong_g": null,
  "N0": 4096,
  "em_iters": 100,
  "em_m_steps": 100,
  "em_iter0_m_steps": 100,
  "em_beta_scale": -1.0,
  "em_d_eff": 811030,
  "em_nu": 0.1,
  "em_lr": 1e-05,
  "em_lr_schedule": "constant",
  "pi": [
    0.005550043402606613,
    0.005455312252525701,
    0.006539559283137454,
    0.0072187196005792,
    0.009658470973212685,
    0.012354279197197787,
    0.021415036738836567,
    0.010666630221920388,
    0.021140720570978815,
    0.011993629463090705
  ],
  "final_weights": [
    1.6553007060122752e-221,
    6.67147733447359e-258,
    1.4598349342263073e-187,
    1.61659944817341e-196,
    0.0,
    1.0727608506549703e-143,
    7.298098032682289e-140,
    3.6473936945297947e-41,
    0.9999979164680052,
    3.9307885115507855e-65
  ],
  "final_argmax": 8,
  "final_argmax_g": 9,
  "best_test_nll": -67.0542015625,
  "final_test_nll": -67.0542015625,
  "test_nll_trajectory": [
    -63.9748,
    -66.1475234375,
    -66.62564921875,
    -66.706684375,
    -66.7229203125,
    -66.707071875,
    -66.72176484375,
    -66.76553984375,
    -66.81205625,
    -66.8156859375,
    -66.8833734375,
    -66.9392,
    -66.99685234375,
    -67.0542015625
  ],
  "em_seconds": 35.772321701049805
}