{
  "target_g": 8.87,
  "gravities": [
    1,
    2,
    3,
    4,
    5,
    6,
    7,
    8,
    9,
    10
  ],
  "lip_mode": "from_file",
  "correct_g": null,
  "wrong_g": null,
  "N0": 512,
  "em_iters": 100,
  "em_m_steps": 100,
  "em_iter0_m_steps": 100,
  "em_beta_scale": -1.0,
  "em_d_eff": 811030,
  "em_nu": 0.1,
  "em_lr": 1e-05,
  "em_lr_schedule": "constant",
  "pi": [
    0.005550043402606613,
    0.005455312252525701,
    0.006539559283137454,
    0.0072187196005792,
    0.009658470973212685,
    0.012354279197197787,
    0.021415036738836567,
    0.010666630221920388,
    0.021140720570978815,
    0.011993629463090705
  ],
  "final_weights": [
    3.2266845312371517e-265,
    2.9000487372505244e-218,
    2.309509166011652e-165,
    9.532549126807718e-250,
    1.153413432891698e-164,
    1.3368132132917174e-84,
    0.9998517678039277,
    1.2352430057476853e-81,
    1.1553132556783003e-164,
    2.5184347827508895e-196
  ],
  "final_argmax": 6,
  "final_argmax_g": 7,
  "best_test_nll": -60.7325296875,
  "final_test_nll": -52.4005578125,
  "test_nll_trajectory": [
    -51.2792578125,
    -56.80555703125,
    -59.012925,
    -59.72092734375,
    -60.1265609375,
    -60.6065890625,
    -60.7325296875,
    -60.6278109375,
    -59.9218953125,
    -58.1035,
    -57.2985078125,
    -56.2647234375,
    -55.60322734375,
    -55.502665625,
    -55.9070546875,
    -54.41326796875,
    -54.13233046875,
    -53.50624609375,
    -53.03017734375,
    -53.21859921875,
    -52.944725,
    -52.62241953125,
    -52.4005578125
  ],
  "em_seconds": 93.7245364189148
}