{
  "target_g": 8.87,
  "gravities": [
    1,
    2,
    3,
    4,
    5,
    6,
    7,
    8,
    9,
    10
  ],
  "lip_mode": "from_file",
  "correct_g": null,
  "wrong_g": null,
  "N0": 1024,
  "em_iters": 100,
  "em_m_steps": 100,
  "em_iter0_m_steps": 100,
  "em_beta_scale": -1.0,
  "em_d_eff": 811030,
  "em_nu": 0.1,
  "em_lr": 1e-05,
  "em_lr_schedule": "constant",
  "pi": [
    0.005550043402606613,
    0.005455312252525701,
    0.006539559283137454,
    0.0072187196005792,
    0.009658470973212685,
    0.012354279197197787,
    0.021415036738836567,
    0.010666630221920388,
    0.021140720570978815,
    0.011993629463090705
  ],
  "final_weights": [
    1.9845433530569264e-273,
    1.0565429814921345e-285,
    1.4478092581815218e-218,
    8.583146842096046e-232,
    0.0,
    5.879919122356234e-146,
    9.181538057850682e-138,
    3.7493161397575695e-39,
    0.9996431204515637,
    1.2377943584792939e-56
  ],
  "final_argmax": 8,
  "final_argmax_g": 9,
  "best_test_nll": -66.29408125,
  "final_test_nll": -66.29408125,
  "test_nll_trajectory": [
    -58.546040625,
    -63.16635078125,
    -64.1352453125,
    -64.55664453125,
    -64.88293125,
    -65.093103125,
    -65.279828125,
    -65.36675,
    -65.42132109375,
    -65.56658046875,
    -65.61865390625,
    -65.68276875,
    -65.69979375,
    -65.75998203125,
    -65.8339578125,
    -65.9019703125,
    -65.9216921875,
    -65.9887875,
    -66.099653125,
    -66.069815625,
    -66.2015171875,
    -66.29408125
  ],
  "em_seconds": 87.05061030387878
}